{
  "version": 2,
  "trainedAt": "2026-02-26T03:24:01.735Z",
  "dataset": "archive/rvf10k",
  "modelType": "logistic_regression",
  "transform": "zscore_poly2",
  "featureNames": [
    "rMean",
    "gMean",
    "bMean",
    "rStd",
    "gStd",
    "bStd",
    "grayMean",
    "grayStd",
    "edgeMean",
    "edgeStd",
    "laplaceMean",
    "laplaceStd",
    "hfEnergy",
    "blockinessH",
    "blockinessV",
    "centerBrightnessDelta",
    "centerContrastDelta",
    "rgCorr",
    "rbCorr",
    "gbCorr",
    "histR0",
    "histR1",
    "histR2",
    "histR3",
    "histR4",
    "histR5",
    "histR6",
    "histR7",
    "histG0",
    "histG1",
    "histG2",
    "histG3",
    "histG4",
    "histG5",
    "histG6",
    "histG7",
    "histB0",
    "histB1",
    "histB2",
    "histB3",
    "histB4",
    "histB5",
    "histB6",
    "histB7",
    "lbp0",
    "lbp1",
    "lbp2",
    "lbp3",
    "lbp4",
    "lbp5",
    "lbp6",
    "lbp7",
    "lbp8",
    "lbp9",
    "lbp10",
    "lbp11",
    "lbp12",
    "lbp13",
    "lbp14",
    "lbp15"
  ],
  "featureMean": [
    0.5208839285471057,
    0.4260855040679399,
    0.3819561390250338,
    0.24756100469543896,
    0.2224287775896074,
    0.2198435595177352,
    0.4493994853723283,
    0.2235538900395683,
    0.27581743619133386,
    0.3346568723019257,
    0.0641733751155907,
    0.09073038571839695,
    0.01911263027264524,
    0.030799565214958902,
    0.029001166778016535,
    0.09730028898674674,
    -0.04544690301866792,
    0.9041076724664464,
    0.8286850963196024,
    0.9446470823343307,
    0.10338217230902773,
    0.11481495225694426,
    0.11274483506944438,
    0.12103416883680565,
    0.13975699869791705,
    0.15602970920138887,
    0.14653553602430539,
    0.1057016276041666,
    0.14011244574652776,
    0.15143606770833348,
    0.1520573350694444,
    0.16414601779513902,
    0.1572132486979167,
    0.1178068033854166,
    0.07171695963541648,
    0.04551112196180549,
    0.17956850043402728,
    0.17996355251736149,
    0.17298706597222235,
    0.15967238498263842,
    0.12410598958333326,
    0.0827786783854167,
    0.05445009765624999,
    0.046473730468750044,
    0.15364746345849142,
    0.0838389058021331,
    0.027943917018284095,
    0.08536114226708671,
    0.020600130855098046,
    0.010690004717904877,
    0.018947940590005184,
    0.07956398324698673,
    0.08299641483736574,
    0.01949747636596704,
    0.011787629742384577,
    0.02375410591251402,
    0.08233735467962756,
    0.028081837846498973,
    0.09019370115188104,
    0.18075799150777105
  ],
  "featureStd": [
    0.11446636331904649,
    0.10955199130107748,
    0.11530544652364084,
    0.0481350241450964,
    0.04413926285295138,
    0.049375235370826845,
    0.10742129679561704,
    0.04220420924640125,
    0.06110972394646935,
    0.07096026525505492,
    0.017566585923329058,
    0.023893334191798735,
    0.005176783824039316,
    0.007375777607372468,
    0.00749686494462992,
    0.13514114385770587,
    0.05679425222495873,
    0.09785134330303655,
    0.1567487702324358,
    0.09168037106192792,
    0.11333403802322213,
    0.07344795066667803,
    0.0651866382193229,
    0.06643858102130422,
    0.0746883771742879,
    0.0842408471875674,
    0.0965646173494761,
    0.11322552057381771,
    0.13236424210208886,
    0.07913196646043609,
    0.07039567925104233,
    0.0741441450817668,
    0.07777386382811369,
    0.08101352450129719,
    0.07854083788322351,
    0.07988702745423323,
    0.15228614246353414,
    0.08647960428970393,
    0.07422943455654613,
    0.07530077029625892,
    0.0741705871339076,
    0.07100445203657188,
    0.0702610339632321,
    0.08233821509422157,
    0.018012676049265087,
    0.016125080968736542,
    0.005896904933120443,
    0.014689194115813485,
    0.003585781442776071,
    0.002277820470216352,
    0.002974977566695416,
    0.013093051989723834,
    0.017651267546344045,
    0.003097178064172812,
    0.002283741909078238,
    0.004248484294166727,
    0.015563593092124395,
    0.005934978745339768,
    0.015405380368703639,
    0.0329252132750606
  ],
  "weights": [
    0.012351277940172404,
    0.014829844617654511,
    -0.020062453895238218,
    0.08690709792336153,
    0.04908769655195302,
    0.02159842319817543,
    0.010358036278139193,
    0.0375657075036974,
    -0.02988339558234804,
    0.06379314702383217,
    0.059248328319311434,
    0.18664335583687586,
    0.056577752962518595,
    -0.021936226262208317,
    0.005438153895712641,
    -0.044711301859747934,
    -0.04039929759998328,
    -0.0955813541447483,
    -0.14466680291891715,
    -0.14126137279099957,
    0.005215628406017879,
    -0.06174610477088236,
    0.008213581001385915,
    0.03781030570899705,
    0.0042133629908052625,
    0.01652938675777673,
    -0.02467743980400746,
    0.01388703334860654,
    -0.004025912299156457,
    -0.013909551271608618,
    0.017966354666188993,
    -0.037039492087656854,
    -0.022608602908453602,
    0.004977155434892074,
    0.04226448168470548,
    0.014404571584285738,
    0.02924669264784474,
    -0.03401391791339452,
    0.013122961593959736,
    -0.016269616714333923,
    0.017390371646278425,
    -0.00024511601376334,
    0.004728320160197412,
    -0.0348078665149637,
    -0.15821168954755138,
    -0.019522218085597266,
    -0.04999950749621255,
    -0.061075285771109294,
    0.08933555346247228,
    0.036107162746843814,
    0.0036289027878634943,
    -0.005749291831018802,
    -0.02971489355713409,
    -0.06071278635518346,
    -0.018680025028557784,
    0.09838500292901785,
    0.011537791472047063,
    -0.03617458920903686,
    -0.06193584346643868,
    0.1623372024624677,
    -0.0008085987357383769,
    0.07456810003194317,
    0.0464270375005078,
    -0.0032363941015272984,
    -0.02739420674223134,
    -0.01145185914084404,
    0.05332099519296536,
    -0.03982013831366005,
    -0.008704839701974504,
    -0.013488002353732589,
    -0.0562188234310176,
    0.03475508612917249,
    0.0005752496557647148,
    0.06238511877409486,
    -0.047541881500517975,
    -0.06057566196266284,
    -0.02290549970890937,
    -0.006349858807108489,
    -0.007787203141688655,
    -0.01481998515826515,
    -0.09899312674369032,
    0.006239915126642125,
    0.008716626036178333,
    -0.0019581660026816118,
    0.0088312054129113,
    -0.025278095248460537,
    -0.01534725459413204,
    0.01954520278995724,
    -0.03797640603096948,
    0.05823496788714617,
    -0.008369868870732185,
    -0.019931665107218402,
    0.00029588913206527275,
    -0.022299685605837248,
    -0.03379817575498572,
    -0.06346473274028916,
    0.006629962117592062,
    0.012795870874536002,
    0.02485784380067723,
    0.013028399921423654,
    -0.0001839645295852487,
    -0.04620637535909172,
    -0.0378864015050789,
    -0.07869280133492124,
    0.07696252539949623,
    -0.006804666070033735,
    0.01625040178465615,
    0.07174658318660745,
    -0.014830192093818698,
    0.031815784524603014,
    0.04608130093955345,
    0.034006834004865955,
    0.006087316007892397,
    -0.008510304941372782,
    -0.03023659917263779,
    -0.06019788032136322,
    0.02465526829447081,
    0.0462722146563584,
    0.016825332765325177,
    0.029093194412534856
  ],
  "bias": 0.061101647827113324,
  "metrics": {
    "validAccuracy": 0.672,
    "validBrier": 0.2182521050854842,
    "trainCount": 3600,
    "validCount": 1000,
    "epochs": 260,
    "learningRate": 0.026,
    "l2": 0.001
  }
}